{
  "inputs": {
    "alignment": [
      [
        0,
        2,
        1,
        0,
        0,
        2,
        0,
        1
      ],
      [
        1,
        0,
        2,
        0,
        0,
        1,
        1,
        2
      ],
      [
        0,
        0,
        3,
        0,
        2,
        3,
        1,
        3
      ],
      [
        2,
        1,
        3,
        2,
        3,
        3,
        2,
        1
      ],
      [
        3,
        1,
        1,
        0,
        3,
        3,
        3,
        1
      ],
      [
        1,
        3,
        3,
        2,
        0,
        0,
        1,
        1
      ],
      [
        3,
        3,
        1,
        1,
        1,
        1,
        2,
        2
      ]
    ],
    "parentIndex": [
      -1,
      0,
      0,
      1,
      1,
      2,
      2
    ],
    "distanceToParent": [
      0.0,
      0.1209479241134644,
      0.3248415765697735,
      0.442354175478619,
      0.3729423958584814,
      0.3634191413507186,
      0.15472044120014422
    ],
    "base_model": {
      "eigenvalues": [
        0.0,
        -1.3333333333333333,
        -1.3333333333333333,
        -1.3333333333333333
      ],
      "eigenvectors": [
        [
          -0.5,
          0.8660254037844386,
          8.326672684688674e-17,
          0.0
        ],
        [
          -0.5,
          -0.28867513459481287,
          0.8164965809277259,
          -8.756052933765056e-17
        ],
        [
          -0.5,
          -0.28867513459481287,
          -0.408248290463863,
          -0.7071067811865475
        ],
        [
          -0.5,
          -0.28867513459481287,
          -0.408248290463863,
          0.7071067811865476
        ]
      ],
      "pi": [
        0.25,
        0.25,
        0.25,
        0.25
      ]
    },
    "rates": [
      0.5,
      1.0,
      2.0
    ],
    "log_weights": [
      -1.0986122886681098,
      -1.0986122886681098,
      -1.0986122886681098
    ]
  },
  "outputs": {
    "log_likes": [
      [
        -17.771105011593963,
        -20.63574136472381,
        -17.889076835375437,
        -11.16737146191877,
        -16.7513978960905,
        -20.63574136472381,
        -17.88907683537543,
        -20.635741364723795
      ],
      [
        -14.91033035292477,
        -17.036082280655563,
        -15.032466423174217,
        -9.76285986666025,
        -13.86397128519933,
        -17.036082280655563,
        -15.032466423174217,
        -17.03608228065556
      ],
      [
        -12.567290984839977,
        -13.928994385556726,
        -12.691908310607843,
        -8.915697690385315,
        -11.485834191729593,
        -13.928994385556726,
        -12.691908310607843,
        -13.928994385556724
      ]
    ],
    "posteriors": [
      [
        0.004989024194188001,
        0.0011689188188603893,
        0.005021034627032778,
        0.0686004391563781,
        0.004705828066543789,
        0.0011689188188603893,
        0.005021034627032814,
        0.0011689188188604039
      ],
      [
        0.0871834916491985,
        0.042765782956055445,
        0.08737825260518362,
        0.279446407958991,
        0.08445580380011074,
        0.042765782956055445,
        0.08737825260518362,
        0.04276578295605553
      ],
      [
        0.9078274841566135,
        0.9560652982250841,
        0.9076007127677835,
        0.6519531528846308,
        0.9108383681333455,
        0.9560652982250841,
        0.9076007127677835,
        0.9560652982250841
      ]
    ]
  }
}